MTP
version = 1.1.0
potential_name = MTP1m
scaling = 1.000000000000000e+00
species_count = 2
potential_tag = 
radial_basis_type = RBChebyshev
	min_dist = 5.000000000000000e-01
	max_dist = 5.000000000000000e+00
	radial_basis_size = 8
	radial_funcs_count = 1
	radial_coeffs
		0-0
			{-2.297433976850186e-03, -5.988948733843816e-02, 1.141431320528473e-01, 1.421389098241172e-02, 7.537261777657636e-02, -5.771178244048167e-02, -3.805029533638479e-02, -1.976520960055231e-02}
		0-1
			{-5.825689111813313e-02, 6.334423137334440e-02, 1.590985991925458e-01, -4.719408317207208e-02, -9.340618145246059e-02, -3.433193477316029e-02, 1.862111285923548e-02, 5.379308155466328e-02}
		1-0
			{-1.172770090633658e-01, 8.618875537423122e-02, 6.545147016439311e-02, 5.826268194139254e-02, 3.977029845497931e-02, 1.042780723839434e-02, 4.478540320878382e-02, -1.838895209840477e-02}
		1-1
			{-1.069881405087501e-01, -1.387616924662159e-01, 7.445036391493809e-02, 1.027066497631596e-01, 1.023408996848741e-01, 4.553537771573331e-02, 1.645688092731757e-02, -7.460121214813611e-04}
alpha_moments_count = 1
alpha_index_basic_count = 1
alpha_index_basic = {{0, 0, 0, 0}}
alpha_index_times_count = 0
alpha_index_times = {}
alpha_scalar_moments = 1
alpha_moment_mapping = {0}
species_coeffs = {2.738534810156512e+00, -6.142926286865349e-01}
moment_coeffs = {3.578383544249746e+00}
